digraph Tree {
node [shape=box, style="filled, rounded", color="black", fontname="helvetica"] ;
edge [fontname="helvetica"] ;
0 [label="fbs <= 0.5\ngini = 0.715\nsamples = 123\nvalue = [8, 48, 32, 30, 5]\nclass = 3", fillcolor="#e8fadc"] ;
1 [label="trestbps <= 117.5\ngini = 0.711\nsamples = 118\nvalue = [8.0, 48.0, 31.0, 26.0, 5.0]\nclass = 3", fillcolor="#e5fad8"] ;
0 -> 1 [labeldistance=2.5, labelangle=45, headlabel="True"] ;
2 [label="cp <= 3.5\ngini = 0.618\nsamples = 42\nvalue = [3, 24, 7, 6, 2]\nclass = 3", fillcolor="#bff29f"] ;
1 -> 2 ;
3 [label="gini = 0.375\nsamples = 8\nvalue = [2, 6, 0, 0, 0]\nclass = 3", fillcolor="#a7ee7b"] ;
2 -> 3 ;
4 [label="gini = 0.642\nsamples = 34\nvalue = [1, 18, 7, 6, 2]\nclass = 3", fillcolor="#c9f4ae"] ;
2 -> 4 ;
5 [label="age <= 59.5\ngini = 0.725\nsamples = 76\nvalue = [5, 24, 24, 20, 3]\nclass = 3", fillcolor="#ffffff"] ;
1 -> 5 ;
6 [label="gini = 0.684\nsamples = 44\nvalue = [3, 13, 20, 5, 3]\nclass = 2", fillcolor="#d2f9f2"] ;
5 -> 6 ;
7 [label="gini = 0.643\nsamples = 32\nvalue = [2, 11, 4, 15, 0]\nclass = 0", fillcolor="#dad9fa"] ;
5 -> 7 ;
8 [label="thalach <= 133.5\ngini = 0.32\nsamples = 5\nvalue = [0, 0, 1, 4, 0]\nclass = 0", fillcolor="#6d6aec"] ;
0 -> 8 [labeldistance=2.5, labelangle=-45, headlabel="False"] ;
9 [label="gini = 0.0\nsamples = 3\nvalue = [0, 0, 0, 3, 0]\nclass = 0", fillcolor="#3c39e5"] ;
8 -> 9 ;
10 [label="age <= 65.5\ngini = 0.5\nsamples = 2\nvalue = [0, 0, 1, 1, 0]\nclass = 2", fillcolor="#ffffff"] ;
8 -> 10 ;
11 [label="gini = 0.0\nsamples = 1\nvalue = [0, 0, 1, 0, 0]\nclass = 2", fillcolor="#39e5c5"] ;
10 -> 11 ;
12 [label="gini = 0.0\nsamples = 1\nvalue = [0, 0, 0, 1, 0]\nclass = 0", fillcolor="#3c39e5"] ;
10 -> 12 ;
}